{
  "hidden_layers": [
    100
  ],
  "n_features_in": 15,
  "n_outputs": 41,
  "n_layers": 3,
  "out_activation": "logistic",
  "classes": [
    "video games",
    "running",
    "gym",
    "playing guitar",
    "board games",
    "reading",
    "tennis",
    "cooking",
    "football",
    "photography",
    "singing",
    "piano",
    "cricket",
    "swimming",
    "martial arts",
    "paddle",
    "basketball",
    "any outdoor activity",
    "scuba diving",
    "esports",
    "sightseeing",
    "hiking",
    "camping",
    "exercising",
    "stocks",
    "painting",
    "skiing",
    "working out",
    "rock climbing",
    "pilates",
    "horse riding",
    "crochet",
    "handcrafting",
    "walks",
    "skate",
    "rave",
    "playing violin",
    "watching movies",
    "volleyball",
    "weightlifting",
    "learning spanish"
  ],
  "network": {
    "weights": [
      [
        [
          1.929339917011052,
          0.7064486156196658,
          -1.4205643438919793,
          -0.028119253408745944,
          -1.0464160617606764,
          -0.04542862602490383,
          -0.43497073688043375,
          -1.5088179361388534,
          0.5115472062688322,
          0.020816258369448983,
          -1.1774608199203849,
          0.118606729444084,
          -0.39328267173177134,
          0.27246257527821066,
          -2.7074415964885516,
          0.15713346874201276,
          -0.03641581030595302,
          0.12118157748080394,
          0.004542008318516232,
          -0.08763176579004256,
          1.3463540191077463,
          0.1826359056241241,
          -0.2996362884331545,
          0.14704593534769703,
          0.1398159395685793,
          1.5358105213359192,
          0.9820669777777621,
          -0.3684955235391173,
          0.20245867175746124,
          -0.10284942899395023,
          -1.782808859468734,
          0.023210693520755082,
          0.907587343064462,
          0.07057314799697091,
          -0.784228622284261,
          1.7244038330110039,
          0.27754272277768743,
          0.2006304365257562,
          -0.2689285523292702,
          0.3597259212347161,
          1.1916186657116588,
          0.04010076558871656,
          -0.18909845111227602,
          -0.43035532220179246,
          0.06333895512859686,
          -1.4387097541246114,
          1.6289266598472807,
          0.3172316860816717,
          0.03684326707657799,
          -0.2700445631951399,
          0.2329596475995926,
          1.508498576013063,
          0.9436118413473649,
          -0.9711116886797365,
          -0.2855144743466742,
          -0.8449924836652296,
          0.08952638027832399,
          -0.26994259683809624,
          -0.026740333324119524,
          0.14156574484563053,
          -0.8279062298961248,
          0.05543883945610761,
          1.5950087253473948,
          -0.03257308190975502,
          -0.8187762399133415,
          1.1458539910790286,
          0.10258040785488005,
          0.1885921829148859,
          0.19968441270878357,
          0.1112638059531735,
          0.31767880793164277,
          -0.26682826635438667,
          -1.827869703458423,
          1.2604877589518992,
          -0.3335988425750839,
          -1.5185857949554005,
          1.9395105110931365,
          -1.279091836351694,
          0.17134007431907688,
          0.2795178729671766,
          0.45831680698118066,
          1.0376704124606062,
          0.7992333541354109,
          0.06863030740477147,
          0.24178724106432928,
          1.8787862973456466,
          1.7407764409542732,
          1.8714190274950666,
          -0.11918639034505135,
          0.09329380391096403,
          -1.429765905019835,
          0.8892296635660197,
          0.7297263773402385,
          0.09426921623682148,
          -0.4974900372031808,
          -0.8864879732974827,
          0.16369324690718523,
          0.5400307360040133,
          -1.8026340149979325,
          0.3681435622606838
        ],
        [
          -1.5643505449531858,
          0.35217402354794325,
          1.030244884397517,
          0.0604197740800609,
          1.3075001710129002,
          0.11341217572016864,
          -1.6243591194181721,
          1.0485709903617249,
          1.2050489206448227,
          0.18165992203924178,
          -1.82900300244299,
          -0.05578887487594405,
          1.358029601459558,
          -0.014375540137606587,
          1.0280587980969618,
          0.15273431724608802,
          -0.05372409312921789,
          0.23200066462701585,
          0.10884894588177092,
          -0.3930689643479091,
          -0.791675285702297,
          -0.2996842092008594,
          -0.7755986030442361,
          -0.2641375895023488,
          0.14586163848586142,
          0.15474124470229042,
          -1.1421136817179594,
          1.1121073501280905,
          -0.1844257151220665,
          -0.1498800877895303,
          1.5062615892982223,
          0.181641110347341,
          0.07936576965751495,
          -0.16694117482958684,
          0.6235169861153373,
          0.6845860684887596,
          -0.5849995683431465,
          0.2523832312925446,
          0.643123843155767,
          0.052577986130862814,
          0.14013024900364074,
          -0.9803987101650946,
          -1.038114093150004,
          -1.373018800743552,
          -0.8311038456293196,
          -1.6627996037946056,
          0.11224878534005354,
          0.8380726625937,
          0.19845429992030053,
          -1.6661212536614503,
          -1.6159192743044548,
          -1.243164968956976,
          0.4799539559035326,
          -0.8885597953457275,
          -0.23009720162215525,
          0.0747498619829698,
          -0.0988667863796474,
          0.2629871715345457,
          -0.06106262208079387,
          0.13627972146500753,
          0.13139662987556566,
          0.08053537878329867,
          -0.4575418260340412,
          0.13127517343935102,
          -0.10451635588972731,
          -1.6586951636245975,
          -0.03376031279705141,
          0.14837957582780578,
          0.11943923467012361,
          0.09631225831845831,
          -0.2885895844371071,
          0.4868331628443894,
          2.2173547834335103,
          -1.595032670303897,
          0.9115951039233858,
          -0.6816767219969488,
          1.9237797163633363,
          -0.6461808216123479,
          -0.18971023528961967,
          -0.5777591472420872,
          0.2717633757811844,
          0.8918982825352993,
          -0.36064172125304017,
          -0.011052264225907051,
          -1.2110448783310672,
          0.22959458597860175,
          -1.2439765607531204,
          0.7164166134549241,
          1.9674865825456893,
          0.17684406149208032,
          -0.6236671720395301,
          -1.5859232012389142,
          1.049079365652323,
          0.15229866308849246,
          0.7210278856220056,
          1.7903547002600804,
          -0.26487109416149857,
          -0.7925671204687427,
          0.048944448878178747,
          1.1765859006501518
        ],
        [
          -1.2837092254610347,
          -0.7423954786448524,
          0.15212347922350405,
          0.12546436019483448,
          0.29183798513387366,
          0.061720998089012345,
          0.6501938848028993,
          -1.0454663174118983,
          1.332964129390779,
          0.15720474048731212,
          -0.601345014856641,
          0.18812079150510733,
          -1.173657219820351,
          -0.3966372831119266,
          -1.2014851465686278,
          0.0399166447332554,
          -0.47291210106516013,
          0.19450915985598757,
          0.1013140413106328,
          -0.09712208975651614,
          -0.8361029935014953,
          -0.24914149493054097,
          -0.4676716339663881,
          0.18143877487512103,
          0.03797394794592624,
          1.5781933837613196,
          -1.0105221980067476,
          1.3640536927031723,
          0.1441448881897716,
          0.3233946902874747,
          -2.3255671461487513,
          0.06700695286709238,
          0.1881017164343116,
          -0.5179412772717791,
          -1.1025479163450167,
          -0.8455730678347632,
          -0.8511561263797626,
          -0.6697128502137932,
          -0.34490891406383123,
          0.08415568370002428,
          -2.3391352803114716,
          1.3249459354005733,
          1.8425765215426573,
          -0.24692672723197123,
          0.08337599077846021,
          -0.276878691777852,
          -1.6966333411741554,
          -0.29627862601250016,
          -0.05246532744559768,
          0.30073169798806665,
          -1.095209899883126,
          -0.488245367016088,
          -1.5614566177113776,
          1.730041467691688,
          -0.17546006351469573,
          0.8784046819172066,
          0.0448856557281716,
          -0.2916141392564386,
          -0.24786814202920665,
          0.02908725458820273,
          0.5049225756910327,
          0.14655976771684281,
          0.3694595745474454,
          0.12770257323867185,
          0.9638638491688043,
          -2.1912001891816444,
          0.07978439382081101,
          -0.3620008543682933,
          0.05577941528472814,
          0.04413160605004226,
          0.045665338758351416,
          -0.44442633941371046,
          -0.08482724768468428,
          -0.7775727598917411,
          1.119033748557268,
          0.30747344614782945,
          -1.462403057132271,
          0.5699746340960975,
          -0.06709928929824051,
          -0.4279772043899156,
          -0.4830184466786209,
          1.0206752029487949,
          -0.12211937954070765,
          0.030287907673581197,
          -0.712892303706575,
          0.7336203113151849,
          -1.192966675771572,
          -0.6445413823749465,
          0.38192969597352106,
          0.1206257087261647,
          0.9199675485662824,
          0.43522079228579647,
          -0.6271130938978269,
          0.05987407573995257,
          -0.3984576387458467,
          -1.3101380586937594,
          -0.26661119561016344,
          -1.68577530665517,
          -0.5015514222857762,
          -0.6023599177575871
        ],
        [
          -0.36333734033860565,
          -0.7448835826860652,
          0.336886129957265,
          0.09522838361350033,
          -0.6262645504890795,
          0.05736479710711026,
          -1.0685153718440499,
          -1.4876797522095944,
          0.6211710523259181,
          0.045545966889633034,
          0.9079819832482424,
          0.14729740939868793,
          -1.6875499350869387,
          -0.5623041675348992,
          0.6478339221448849,
          0.0812330933173662,
          0.38414229690500057,
          0.0442343112395546,
          -0.009300890997670055,
          0.31045936827186765,
          -0.5840075141550889,
          0.1098420683355392,
          0.10371151860350203,
          -0.19786238703680475,
          -0.0250025882240155,
          -1.4556861573029565,
          -0.2227614753887042,
          0.8796995424379672,
          -0.17239378648434403,
          0.10598970831069968,
          2.1124541108863024,
          0.1424435689075341,
          -0.7752913849499588,
          -0.11850391626661516,
          1.6396317043729285,
          -2.1440271477533748,
          -0.15506569945741921,
          0.5816198069435641,
          -0.3139449433426283,
          -0.016229973595663735,
          1.2998085938078898,
          0.018387741487393413,
          2.17316416150944,
          0.9438949061849975,
          0.41193609702771566,
          -0.8458488178463782,
          1.245261493116313,
          -0.6701858903630374,
          -0.017668256018745155,
          0.2177174371423339,
          0.38507624357953774,
          1.7510549246076774,
          -0.6081107393743753,
          -0.14715274101392034,
          0.39830548551172823,
          -0.443107580381614,
          0.17697361167483452,
          -0.11781628180074198,
          -0.7192425040901441,
          0.1897920301049319,
          -0.34904084809622415,
          -0.03497174587994834,
          -0.09084299091697727,
          0.046835996125951955,
          0.9536150796353555,
          -0.27944626280864104,
          0.1968536246589488,
          -0.2665844002077533,
          0.11585794090551033,
          -0.04477647897763685,
          0.1427613563669576,
          -0.6749037688054647,
          -2.184932879305882,
          0.7178423542812826,
          -0.7173437905543572,
          0.35270653062765916,
          0.6171231166812423,
          0.96604080322651,
          0.22761701355244196,
          -0.6100827224006297,
          -0.4597729799173782,
          0.18206868323990671,
          0.39707508597944136,
          0.035641892415230976,
          -0.517765824916628,
          -0.3145170589299735,
          0.0487068193305838,
          0.1847250522193327,
          -1.0315132836749485,
          0.07270948603816467,
          -0.6642454860244315,
          0.5211964748640734,
          -0.39278625855290333,
          -0.058116400134127125,
          -0.4590866887479078,
          -1.0864065981072257,
          -0.39151431628277455,
          -1.3947591125853176,
          -0.470458498112279,
          -0.8387477037308785
        ],
        [
          -0.2410902272176755,
          -0.14404420763163894,
          -0.6980455457877618,
          0.12344402763392773,
          0.3936269696639233,
          0.20822490449383282,
          -0.6480158896666427,
          -1.6773898449220528,
          -1.1323439197602363,
          0.09974942440635748,
          -1.145159889104852,
          0.06189741141678746,
          1.0586075430988102,
          0.33373709704175647,
          -1.4234950926667307,
          0.047233169213159065,
          0.7244651655181392,
          0.11677669174251423,
          0.19792726534405905,
          -0.008457167135631055,
          0.3059511866405222,
          -0.05883295822796809,
          -0.4098978867661379,
          -0.1958343362915212,
          0.06671436257541903,
          -1.4727803503974959,
          -1.3382112200262641,
          -0.7397477249121541,
          0.08423179135938294,
          0.29168712537302477,
          1.270902320874405,
          0.059893584387185096,
          0.5794065667608932,
          0.08634875083042103,
          1.5349488229604025,
          -0.2653988739298494,
          0.870798465403782,
          -0.8666855644071214,
          0.2787813698250339,
          -0.17972604569018655,
          -0.6052273431813612,
          -0.2933598069624451,
          -0.7643608705413386,
          0.7962078191526932,
          0.7040924154849395,
          1.4545680892868094,
          -0.27164388191850697,
          0.15841951737385543,
          -0.45417557989233054,
          -1.2012694265258488,
          -0.4697242864172918,
          -0.8136337930316908,
          1.3134481402655678,
          1.1515528000853563,
          0.40645752248684425,
          -0.2276481068053495,
          0.08576358548959971,
          -0.035335618212071374,
          -1.1431495338124575,
          -0.006827611087106417,
          -0.2573262489837917,
          0.15661016509529452,
          -0.24597966907208837,
          -0.016208652099142892,
          -0.11724565004183914,
          -0.7683149033034067,
          0.18697667735972937,
          -0.02756822381698135,
          0.09966393798350318,
          0.018873446398000305,
          0.4408071900970767,
          0.20200130414619266,
          -1.286325162351421,
          -0.6863173332553225,
          1.0382295679395752,
          -0.0385473228430654,
          0.7329810773866683,
          0.8675143572893907,
          -0.12920946005073042,
          -0.0506077768068228,
          0.1517282324608373,
          0.2472945339681178,
          -0.12802442818904583,
          0.15434066938445176,
          -0.5385153731484934,
          0.7680896542253455,
          -1.0932831495083406,
          -0.4025208793209964,
          -1.9170998885602215,
          0.037679816696419,
          -1.1837881521511928,
          -0.9647592479754749,
          -0.13793558865484884,
          0.04874610050078493,
          0.19320308585782853,
          0.9216416265249366,
          0.12612860769408038,
          0.6939141440144898,
          1.305219391462998,
          -0.2634263949642209
        ],
        [
          0.02123163157202864,
          0.46742969578454124,
          -1.4749133513491555,
          0.0028581889147269225,
          -0.3132415748114785,
          0.027488662326885554,
          1.0685798230749457,
          -0.017254822208464964,
          -0.07192020386953189,
          -0.02157927819834689,
          1.6460779519594289,
          0.0038198757126471647,
          -0.1877846678712512,
          -0.4439594989441432,
          -0.6594829463122591,
          0.07859441622179204,
          -0.25030851037383395,
          0.037610197516556115,
          0.0795398736659986,
          0.6124545080822773,
          0.6167590549829381,
          0.05360829169216256,
          0.28483737111289625,
          0.14037668687460714,
          -0.049839828344290536,
          1.030717886676125,
          -0.23168221421982316,
          -2.0133193451204288,
          -0.04466995669303181,
          -0.07864584300024838,
          2.0198755124430434,
          -0.04534766521205751,
          1.0639243042512392,
          0.019999296648100445,
          -1.8006519733920656,
          1.3545067850188826,
          1.0472604914681378,
          0.6039021163699521,
          -0.34023162651327177,
          -0.15862420778364317,
          1.290648090351835,
          0.4885187476492414,
          -0.4532232943610008,
          0.3695879415823184,
          -0.6242783412982706,
          0.7939009934898109,
          -1.1256779683555331,
          -0.08374376103309784,
          0.11472570271011404,
          -0.27377251536279174,
          -1.0512078901575574,
          -0.7822480631185293,
          -1.5228226890076406,
          0.5155982558464045,
          -0.24897858064622283,
          -0.30137427559330937,
          0.08376679482466799,
          0.1830703722025018,
          0.6446771026306727,
          -0.054926640704535956,
          -1.1757147750256502,
          0.0824938584414234,
          0.9225309276313771,
          -0.18708348654356602,
          0.7706065631485594,
          1.4288550220385858,
          0.0554606060757984,
          0.2868141697511795,
          0.1472935932865052,
          -0.13884494762650781,
          0.1007647591928648,
          0.27747495873434797,
          1.3816493269635997,
          -0.7817498813076871,
          -0.08055473408808016,
          0.8867299437377032,
          -1.7352890773530223,
          0.3871735812920685,
          -0.14499660792027108,
          0.22999889469835272,
          0.46890700729211404,
          -0.4033314938703084,
          0.568459646996882,
          0.04866359339252971,
          -0.9891177487125086,
          0.4098793080170766,
          1.2366243252391882,
          -0.4400385717948131,
          1.2610637095586428,
          0.1472609870280514,
          -0.9651340154553748,
          1.1351704435631236,
          -0.5346731991150161,
          -0.06512226276287407,
          -0.18567534795039267,
          -0.2378537707173519,
          0.17215656441696214,
          0.921502506620105,
          -0.7126932075380719,
          -0.36974971890145336
        ],
        [
          1.494369321996927,
          -0.14921178123581408,
          -0.9672965655132709,
          0.016028468433526094,
          -0.5577408088013556,
          0.22320970715276292,
          -0.48305495424471656,
          0.413788917702261,
          -0.8972176115527978,
          0.2072899167635185,
          0.5730211651173354,
          0.19795309906125827,
          0.3604168037161574,
          -0.012230403998809215,
          1.3024430646333454,
          0.20885840689641233,
          -0.42831044511334826,
          0.023125604896477935,
          0.0060893275509149416,
          -0.20037566001623755,
          -0.3701995387817214,
          0.08114014257539195,
          0.04129809029811702,
          -0.028913030593288324,
          0.12640608169468495,
          -1.847246446443142,
          0.7894670883433952,
          -1.1265475713540458,
          0.021641913673975305,
          -0.01820975958782044,
          -1.3130964447782754,
          0.13820481339006735,
          0.4943275704624881,
          0.15310945878736287,
          0.9049039728100373,
          -0.7606980515868894,
          0.0838383017137871,
          0.7630054654187073,
          -0.009066589453983163,
          -0.20305021543591312,
          1.4060360933209037,
          -0.623277577939794,
          -0.802110517036545,
          0.9902269497652213,
          -0.1382091252337925,
          -0.6047468983390109,
          0.11057642582352849,
          -0.2629334606568439,
          -0.09657844032428223,
          -1.0961231289966162,
          0.6519793574022754,
          -0.4189637715078259,
          0.5158694012517384,
          -1.9919151013806946,
          0.27677746288430055,
          -0.41990910001988596,
          0.11351685197568005,
          -0.19516969496219005,
          -0.023373825707114104,
          -0.005011699449693843,
          -0.5953787893454616,
          0.13103200231393936,
          -0.14855469673983482,
          0.055377867138117015,
          -0.17989951886643027,
          1.8006069915216185,
          0.1324300541218726,
          -0.014779462367334094,
          0.20736560847985358,
          -0.09122961373891939,
          0.048971086356978506,
          -0.08726995739509776,
          2.0841971129861268,
          1.2162746074140947,
          -0.5588423250295859,
          0.6028633130509253,
          -0.01811693911936183,
          -1.5450690120270452,
          0.054614824276132574,
          -0.1708380362070858,
          0.08411508815224154,
          -0.6501006830384168,
          0.8406634601724484,
          0.17061759606258023,
          0.3657284489645448,
          -0.1858996143015229,
          0.17295612882555098,
          -0.19856083391192306,
          1.8907539065377603,
          0.14815627504448872,
          -0.2217269723325065,
          0.8471517602854688,
          0.24257700568938798,
          -0.057382225701604964,
          -0.35705588119103887,
          0.4347061535875043,
          0.012147465320463745,
          0.9203585937767512,
          -0.9392313129133967,
          -0.16692423573090637
        ],
        [
          -1.6247668267516393,
          0.37534526077140334,
          0.18950979021167697,
          0.06156180871790149,
          -0.18635204147233056,
          0.08515241076514601,
          1.0991250195683937,
          0.1301317282284898,
          -0.05373276415808639,
          0.14908374455362122,
          1.3542759163331173,
          0.07441551405395531,
          0.10746013888292996,
          -0.01898876804613716,
          0.7814971925821789,
          0.05611943386057099,
          -0.09822888111265377,
          0.0769976748053217,
          0.09981264053985288,
          0.15605065331624565,
          0.29887441393063346,
          0.2033367644663881,
          0.4429715539047857,
          0.10465241544214525,
          0.02458689862159825,
          -0.22103969509794738,
          1.3552869177731661,
          -0.0451063947558888,
          0.004806189123143291,
          0.12747022059515,
          1.9437227429681887,
          0.007562980055856005,
          0.19522333622914284,
          -0.18671007489099703,
          0.854322493150848,
          1.0810292915947444,
          0.42727456692467153,
          0.6926594126066359,
          0.5293082260309614,
          -0.2349773160405464,
          0.11169863751328318,
          -0.7435647286750949,
          -0.4934451993660625,
          1.485511383337581,
          -0.6351602140377255,
          1.1848316862674397,
          0.6060937177905283,
          -0.274877505634559,
          -0.029924891494341143,
          0.18512871834525468,
          0.7520848025400273,
          -1.1317376780036692,
          0.2878776183715797,
          1.9471628443070432,
          0.15145491732022226,
          -0.0320572071042276,
          0.053349071919846565,
          0.2951221421559937,
          0.7871255028453977,
          0.07110502635931422,
          -0.4669333873792043,
          0.19176222248128913,
          -0.3876655839298527,
          -0.08664545651517253,
          0.04399543362301826,
          -0.04588707213952578,
          0.14751216440452042,
          0.06721372488022874,
          0.1835371360067694,
          0.006969943119379334,
          0.10643134602742281,
          -0.03443657704377081,
          1.4163791439029658,
          0.714394147978997,
          -0.3977408035803741,
          0.40443204315685005,
          -1.7454966303525883,
          -0.7823423892308341,
          -0.15929441434003477,
          0.1989324001052185,
          -0.04936046258193746,
          0.06087954653320991,
          -0.752773661213992,
          0.22320707058594433,
          0.9189693492403509,
          -0.3471615479155863,
          0.10214243888086347,
          0.9063004212267599,
          1.1929420696434891,
          0.17524538418974644,
          -0.3119867788432982,
          0.19691766850347978,
          -0.4309975658989701,
          0.09114528453506336,
          -0.11932008315026657,
          -0.6377086371968661,
          -0.009963376516647731,
          0.5551611501495218,
          -0.6117832063262784,
          -0.4935461316515888
        ],
        [
          1.9277545707597232,
          -0.8083704058300853,
          -0.7865198202624476,
          0.19374193206062995,
          0.770778659288142,
          0.21087541844094493,
          -0.5638360321062318,
          -0.22643665251483114,
          0.9709034745075587,
          0.05948865248912659,
          -0.29254800644646367,
          0.031091579369197417,
          0.856924095723794,
          -0.12324363056128547,
          -0.36724412223712577,
          0.008518169403208287,
          0.15493509903070454,
          0.007101422122451583,
          0.14089064182853456,
          0.43597868259705447,
          0.1507119006859778,
          -0.11728493742701732,
          0.48625674304709016,
          -0.20166296318027283,
          0.1253799353742583,
          0.5441720002675347,
          -1.4496283521102586,
          -1.5459201278441073,
          -0.14076918905205701,
          -0.01691537733091814,
          -1.1513906997198224,
          0.13160200892404975,
          -1.3481692890740216,
          -0.4930093038127708,
          -0.393482833264351,
          0.9374659311562469,
          -1.3378661725579348,
          -0.9261565724683953,
          -0.01666375755235961,
          0.0798026825339103,
          -0.49467853209614615,
          -1.1072364832814758,
          -1.0841125974932981,
          0.2844203427950356,
          0.7093792453126492,
          -0.9149068034355277,
          -1.001528798227566,
          0.012150683794315437,
          0.08166374586964503,
          0.2734197592799803,
          0.7284111949770932,
          1.5786566518906275,
          0.5494026513094749,
          -1.7933769737386691,
          0.5875237754625428,
          -0.0530111558659719,
          0.17267440991141367,
          0.2550377131511872,
          -0.9735272395197994,
          0.1423460136794612,
          0.716150931998191,
          0.06885216118294936,
          -0.07667663965546191,
          0.16491473358279893,
          0.005524137108235327,
          1.2062913453119317,
          0.1037743054680766,
          0.02386974669164708,
          -0.015925065671443844,
          0.25197607559877844,
          -0.34721229010257504,
          -0.3138502119410903,
          0.47556518466055386,
          -1.23035268990925,
          -0.8319386295986608,
          -0.05868180715030977,
          -0.18709389233794438,
          -0.9475914110825309,
          0.32677099743773347,
          -0.355667794933408,
          -0.3881402989458311,
          -1.396986465686148,
          0.1783421920165131,
          0.060174931584184584,
          -1.1646103786592603,
          -1.2089609721611492,
          -0.4403579619043622,
          -0.7409748380487174,
          -1.3711582816343617,
          0.06752831244542157,
          -1.1996467232966574,
          -0.6186362294801916,
          -0.2582816227509373,
          0.1855765355585029,
          0.6884941689417523,
          0.0018468761176186203,
          -0.03613429080463779,
          0.8051516125101911,
          -0.3349044791570799,
          0.4574515374824579
        ],
        [
          -0.6399416307414719,
          0.1671822800127364,
          1.8020629192224797,
          0.2312554641651395,
          -0.36983775866097757,
          0.04716969361070074,
          0.22099668990632979,
          0.8200386959472099,
          0.19280642996539143,
          -0.003304731287933748,
          -1.2760614350111117,
          0.015586612478921997,
          0.5904575583574903,
          0.6890876811994813,
          2.626719177227102,
          0.07535786198990468,
          0.2197287642705966,
          0.15305783269459153,
          0.11682085936629119,
          -0.0019704501604600098,
          -1.466071665936994,
          -0.004379184306082363,
          -0.02091834040139362,
          0.040502391033324835,
          0.10217234770089381,
          -0.5132889348157418,
          1.5258044698203455,
          1.1949318755614808,
          0.1658634422548993,
          -0.04157835900529998,
          -1.1327981686731665,
          0.08172675757327924,
          -0.31885160765100956,
          0.009410455269677384,
          0.5137262036515013,
          1.719672108618788,
          -0.932293883012503,
          0.05032620926499573,
          -0.18618841486968532,
          0.134412335240702,
          -0.1555185930772011,
          -0.2807614057221378,
          -0.2155465600336085,
          -1.1126756729882659,
          0.11662069126754947,
          -0.7315461169702726,
          -0.4343337385512712,
          -1.0453266057815562,
          -0.06196294111510777,
          0.7257823701615264,
          0.27593925338645536,
          -0.8896261801778993,
          0.021306255788799956,
          0.685972060807127,
          -1.0228442078481816,
          -0.7935682409246286,
          0.12497034721577309,
          -0.0030220665453076995,
          -0.16842667492367286,
          0.10644154204999275,
          1.8017593908629626,
          0.16525957272314373,
          0.797089897357768,
          0.15637928724638583,
          -1.0159232019412652,
          -0.1893057223249547,
          0.06367281392930782,
          0.15938445017398875,
          0.2154043989176007,
          0.0940157643446438,
          0.13674947149099012,
          -0.05863046246733505,
          1.6309896928082392,
          2.0124242320087125,
          -0.7711116154833066,
          -1.6620032424507127,
          1.5659715942852321,
          0.45186966791568156,
          0.049197008334302426,
          0.2489160730297208,
          -0.16994238761904662,
          -0.2388022729206407,
          -0.07759676060046218,
          0.004258431526485123,
          0.6325994866828948,
          -0.4093037405209281,
          -0.9469290223807134,
          -1.643589482582902,
          1.6578655693808435,
          0.22938928969726846,
          1.2805005266932676,
          -0.34758861521294854,
          -0.30379394295164946,
          0.09897147864497642,
          0.04625172513996174,
          -0.4873751139794014,
          0.012291030573165294,
          -0.19854783158348527,
          -0.23330238870398604,
          0.7754949700793694
        ],
        [
          -0.6959702918228087,
          1.3820204625894006,
          0.9339342270040583,
          0.15351869784860436,
          -0.07202831446698753,
          0.03796657233101204,
          0.23580447992816875,
          0.8068200153895596,
          -0.6963798248454137,
          0.1036004105393455,
          0.4667703654753722,
          0.043161411020500036,
          -0.04826066600842026,
          0.3126908770135552,
          -0.0649710484307221,
          0.002251544639645983,
          0.31469091118745457,
          0.05089257508267603,
          -0.07236461491008372,
          0.3809776064481077,
          1.18199202235871,
          0.1261106420837496,
          -0.13362006162119053,
          0.2377523342198179,
          0.058610816475835416,
          -0.7660260685358413,
          -0.3691825236116988,
          1.0944067878578836,
          0.3396278434888538,
          -0.05829233261707946,
          1.3399450055919635,
          0.009488356112370108,
          -0.4696310567004171,
          0.20959111973381356,
          -2.0882515650713893,
          -1.562438590090952,
          1.2901793515250333,
          -1.605281129737681,
          0.4742690093905946,
          0.22650069029002515,
          -1.2007039316752035,
          0.9605700112007483,
          -0.3040618158300684,
          -1.1247593703336956,
          0.5378609023532099,
          1.1444472313027623,
          0.5713323562347233,
          -0.12001868172514718,
          0.4838317575311488,
          1.045083175096704,
          -0.6200625108219376,
          1.2996403382701527,
          -0.8101429252338371,
          1.5917758907737307,
          0.47282379890056986,
          0.7832328202495223,
          0.07442316053124981,
          0.3259390874097442,
          0.3862646778939726,
          0.09818627791062333,
          0.792698008975793,
          -0.03976723548596968,
          -0.34129281591115573,
          0.09969808556065245,
          0.42480234754135743,
          -1.7301615311267164,
          0.0054991659085028895,
          -0.46128612947211384,
          0.1934670607813728,
          0.021135835498441218,
          -0.20279671922103992,
          0.3408400078025395,
          2.1463867490776374,
          0.42862353348345184,
          -0.14981196173702524,
          -0.1738349961524141,
          -0.3145158253615414,
          1.1908894851828196,
          0.22857588363223766,
          0.9734637752265277,
          -0.12349563731128962,
          0.15907338637177887,
          -1.062173302612737,
          0.008257594074148868,
          -0.49021971160874944,
          0.8825699222473896,
          0.7125810522628603,
          -0.4299332007062364,
          -1.383848251839472,
          0.1463833290741715,
          0.727527838263971,
          0.6002871399861978,
          -0.09386036172776238,
          0.10692909016036475,
          0.11010538598650987,
          -0.31005866095032564,
          0.11112562427764161,
          -0.7497872967963006,
          1.4074600450233021,
          0.32785966916929093
        ],
        [
          -1.396996074331258,
          0.4416504230602693,
          -0.35410096448392536,
          0.08700280160723631,
          0.6864968008655472,
          0.12559782243198608,
          1.0608920847969798,
          0.47737473450732576,
          -0.32489188429026006,
          0.20534123242475716,
          0.7622476640629446,
          0.019989324805894996,
          0.2291341799040487,
          -0.12003744140499058,
          1.744974453950929,
          0.11655550421210628,
          -0.34212852661716264,
          -0.013561799491155251,
          0.2525574379637486,
          -0.743068467318014,
          1.0896987340469644,
          -0.32896861192133015,
          0.4929529641835625,
          0.3362774360630366,
          0.10021779542643736,
          1.4423917157269492,
          -1.3526367862444146,
          0.5624463898589674,
          0.40444629585469005,
          -0.06747294289578017,
          1.7272383661525108,
          0.07729154709006614,
          -0.6509372479028805,
          -0.08995057977729673,
          0.4126659301023416,
          -1.3904768861838415,
          -0.8227078498479823,
          0.8976713916842439,
          -0.18841697121960693,
          0.3638477978100229,
          0.6458401118440923,
          0.6643841739812717,
          -0.34862899325685065,
          0.21330470527148562,
          0.11647338407091389,
          0.5009531168798497,
          1.4043888080501437,
          0.5705044051534893,
          0.15367674103031728,
          0.87866005032879,
          1.3695403208900503,
          0.005683566110074764,
          1.8809134066777864,
          0.7173445260028196,
          -0.32337416733436974,
          -0.34643237873081884,
          0.00637185536450183,
          0.05133436901970665,
          0.40872514659910797,
          0.16288317298296837,
          -0.570180931153884,
          -0.022505659678502016,
          -1.0711399685551068,
          0.08245743429639989,
          -0.7534252558822634,
          -0.031933758944129545,
          0.10833494331060524,
          0.2816120707806127,
          0.07866550951075459,
          0.025986832532924647,
          -0.0955019682243632,
          0.3539747352879892,
          -0.9247210021167301,
          -0.7909055225491025,
          0.7861156084318263,
          -0.16252684140928572,
          -0.5001907661504355,
          1.481844661544931,
          0.17203679807985647,
          0.6619933398707718,
          0.5449967422216149,
          0.4523943920266928,
          0.36634327869240624,
          0.06729800269641592,
          1.696256780317394,
          -0.30141649067962123,
          0.22750581218459573,
          1.4700836143209697,
          0.11843461012279122,
          0.14318292347180878,
          0.4817166867610679,
          -1.1014301742800832,
          0.9622038339284675,
          0.1543489097472955,
          0.562915319057322,
          0.5809485633994346,
          -0.23155328838564962,
          -0.3591812701196413,
          1.6119989947700313,
          0.15478805597881437
        ],
        [
          1.4499791380365386,
          -0.6421975619333644,
          1.4361223173616917,
          0.13993358741057296,
          -0.20501654809681835,
          0.12626502377986917,
          0.193103880972546,
          1.4281895108092793,
          -0.6515142791321442,
          0.2870696738816031,
          -0.03945783638469204,
          0.013079524585092029,
          0.07415015068058416,
          0.12397682190950524,
          -2.4067111612113212,
          0.12498351866226327,
          -0.5223192692862567,
          0.25629690673827715,
          0.13502462055291595,
          -0.36853141375995363,
          -0.47593288902056824,
          0.06482225134726448,
          0.04235448306300778,
          0.21450836701807244,
          0.08766356465260713,
          -1.3445708829095357,
          0.8358720247602466,
          1.5849020772170375,
          -0.543592985741537,
          0.24834425261491824,
          -1.7733533497352891,
          0.15830707610784958,
          0.634069330553605,
          0.8919729070933169,
          -0.3472728848171297,
          -2.0289072220171973,
          0.33623334358091167,
          0.9805205880068458,
          -0.4308659495565007,
          -0.2694868774279601,
          -0.8133634494940762,
          -1.0026550623062112,
          -1.6296384931265624,
          1.1394065182560469,
          -0.09027056500587632,
          0.3177775049691943,
          -0.37462629483335624,
          0.7923515585145595,
          0.049272695299813894,
          0.505629749845847,
          0.472916937615522,
          0.9776589567227972,
          -0.8182754106038023,
          -0.5657484084855996,
          -0.2321738632155589,
          1.2146530537140956,
          0.014464013197569296,
          -0.14995080246666714,
          -0.9453139779466662,
          0.014966671185236993,
          -0.4465481273737663,
          0.15936467582377925,
          -0.07859050635734156,
          0.16451219564954322,
          -0.9154844017152376,
          0.11608273263666964,
          0.10663716283720655,
          0.17569446009421566,
          0.020795408254486412,
          0.10626820229720182,
          -0.038066898176203824,
          0.7425876520487991,
          -1.4696682560914498,
          0.4064095474306985,
          0.5174282455076492,
          -0.20090024852889876,
          -1.2872764530593608,
          -1.9295873384097488,
          -0.39688781912155296,
          -0.16315827155349918,
          0.6029784108892874,
          0.29972771828284794,
          -0.3275515319589655,
          -0.001304286590849445,
          0.21312325009152747,
          1.0607872674324614,
          0.514607697560852,
          -1.0993039026753668,
          0.5583661742949522,
          0.18838097233435813,
          0.6445961483975378,
          1.7540067870197424,
          0.16821115299924522,
          0.17550452991540802,
          0.007811427720323355,
          1.4339645150605864,
          -0.06629801349134033,
          1.5033489146050008,
          0.24081837433956935,
          -0.370569750088115
        ],
        [
          -0.3570361052087752,
          -0.2348243998595886,
          0.043969710917325586,
          0.16897283155826062,
          -0.008582216518590473,
          0.039584009496146697,
          0.4242143196815127,
          0.33668657243423505,
          0.27119004136820446,
          0.14159026595199173,
          -0.07615546777068867,
          -0.024105303592308176,
          -0.8611757146357231,
          -0.2761871435137487,
          0.6133737416286129,
          0.1952669474584168,
          -0.020815792243551887,
          0.10791570053799754,
          0.21161760531340792,
          0.26380098286117565,
          0.258975948109677,
          0.26229169874105274,
          0.24630143182341915,
          -0.21200355719868189,
          0.00999415764989944,
          0.49521914990752053,
          0.15637226652580066,
          -0.6183557049096424,
          0.18151130785052333,
          -0.1837956716204017,
          -1.8803072804851824,
          0.08636031551933226,
          -0.21375095275669803,
          -0.1570893794859674,
          -0.5822235634608911,
          0.7593488860164455,
          0.1878490480800522,
          -0.020429391894490345,
          0.1023696384898906,
          0.11426848000622646,
          -0.6230221110146722,
          0.8360141238315975,
          1.7108736207314417,
          -1.8346777374660226,
          -0.2957582158034385,
          -0.6619996892479972,
          -0.27919227055603063,
          0.25094684451281263,
          0.04618340647314958,
          0.562460695986925,
          -0.6596345944558656,
          -0.8371696056654157,
          -0.3155774867541726,
          -0.9217815860345612,
          -0.13780001671998107,
          0.05947383374042858,
          0.1524407955685911,
          -0.14155010222851142,
          1.178002975002262,
          0.1591758748824588,
          0.5993774198819832,
          0.18063458475867278,
          -0.5163483519525098,
          -0.011485019652947012,
          0.8751009814544455,
          -0.010876337265225631,
          0.0992366090902374,
          0.28719447726885183,
          0.18200530841605225,
          0.1895447342088145,
          0.01974736366964975,
          -0.5593186917756701,
          -1.6629742187634975,
          -1.0134170325746663,
          -0.09181267042189847,
          1.1813913523888417,
          -0.5499518797467423,
          0.5789341022147587,
          0.17952162138328964,
          -0.35303753191208775,
          -0.41876686715097866,
          0.11331721605972014,
          -0.3737388699503005,
          0.19501869352394258,
          0.5136574633396744,
          -1.2724631979871195,
          0.4025703787688561,
          0.4995711719852034,
          -1.5734071910479641,
          0.1842745917866581,
          1.2085586463883855,
          -1.0747221794399584,
          0.12515115524779777,
          0.03662920359641738,
          -0.30645143870259794,
          -0.46232426244233693,
          0.3772479638139056,
          -0.6502799631129836,
          0.33346016247517285,
          0.333095905029131
        ],
        [
          1.3457501112212389,
          0.3879499839632459,
          0.4395518575643881,
          0.061977178897889694,
          0.025883171990750083,
          0.20481225048669102,
          -0.12511898701611784,
          1.1517108675452419,
          -1.579812798520707,
          0.04292644267322561,
          0.5132930574256591,
          0.06819535191867032,
          0.05644306456572785,
          0.22639532083431724,
          0.03929913029806702,
          0.1841374000262549,
          0.2521999881050018,
          0.22660083886698476,
          -0.011832948976284218,
          -0.13692259398894863,
          -0.8886812009789463,
          0.12859264343457524,
          -0.15939762933963025,
          0.029469833280706913,
          0.08046678885046393,
          1.6920757105198538,
          1.2604783912772686,
          -0.6978862593479378,
          0.2852579651370301,
          0.09054958413597573,
          -0.4061142444006764,
          0.1661402509554157,
          -0.27743617389370595,
          0.6890344153520594,
          0.6919466342501771,
          1.0142445008486694,
          0.21953250945634634,
          -1.1845550418310193,
          0.18735950661399195,
          0.2677677136121999,
          0.07222476362973748,
          1.4076694609001108,
          0.9241452608749813,
          -0.18328932244879634,
          -0.07822647671297225,
          1.4134265273449407,
          0.13064945515926132,
          0.07529483646326086,
          -0.020598645243584554,
          0.1727823698243273,
          0.7168527932496832,
          -0.25683653379085003,
          0.045050819752524264,
          -1.8734292751934019,
          0.008685276890111397,
          0.3172140054278199,
          0.168613660143762,
          -0.16969037122757794,
          1.0194761980773646,
          -0.027907509671448564,
          0.097315508098155,
          0.15941540247414293,
          -0.33135466286713006,
          -3.839180960366228e-05,
          0.0932255273440664,
          1.5836946156001903,
          -0.0389425428951215,
          -0.21011034998267042,
          0.08309914043366191,
          -0.029750718721237086,
          -0.12351002844317492,
          0.46544784246891846,
          -2.0046535701761554,
          -0.31833412434912917,
          -0.06285705090152217,
          0.5671995139754227,
          1.1797264777318113,
          1.5006183603856855,
          0.09973803431376094,
          0.6335846484248661,
          -0.014837168389963634,
          -1.3347713639701533,
          0.1876470450938699,
          0.17624180100163198,
          1.4466500659716366,
          -1.5861056511074862,
          -0.15590800472164146,
          -0.11742513417930912,
          -1.4443346597937325,
          0.030771327742052074,
          1.661262167844964,
          -0.8965099712089808,
          0.25924242093864847,
          0.06847433463002484,
          0.1841251922529845,
          1.3109687014352938,
          0.3758823884609545,
          -0.09812641467068331,
          1.4527105212737998,
          -0.45082060279776454
        ]
      ],
      [
        [
          -2.0059675094512257,
          -0.028722293807495945,
          0.39293329311603853,
          0.36100672677246554,
          -0.6161083670960844,
          -1.2622909810606933,
          -0.07154587482414554,
          1.7255915989672312,
          -1.3031247647499093,
          0.16493027846852995,
          0.18218130055874404,
          -0.037088331566014585,
          -0.4490215356726968,
          -1.4475030091274812,
          -0.37551285223976594,
          -1.2642445125083204,
          -1.006068387372941,
          -0.5976642477918928,
          0.35208311163177636,
          -0.5547998092535983,
          0.1127473696216586,
          0.05852879359688274,
          0.0008004245422796375,
          -0.4451108390224398,
          -0.124754248485985,
          1.0057724483369508,
          -1.035313524985349,
          -0.16503913366460127,
          -0.13061106016719573,
          -0.11198164317797428,
          -0.080100482977445,
          0.4027421335120933,
          -0.7538415144254063,
          0.3625040247574536,
          0.3990966118909752,
          0.38097989346488675,
          0.18372277467290468,
          0.418413097884416,
          -0.5918818695049751,
          -0.027949792325011935,
          0.055145167561022425
        ],
        [
          -1.2842920912459288,
          -0.26273061503405504,
          0.18163477137147502,
          0.02486937611413273,
          0.05086114047248922,
          -0.053222345220350145,
          -0.0007061681426997421,
          -0.5816620857961059,
          -0.26227445731552557,
          -0.5201487056099925,
          -0.40499966250877373,
          -0.16150373364645243,
          -0.17947102845709564,
          -0.12239339653836424,
          -0.364446398353671,
          0.23018756238697172,
          -0.020759280594844786,
          -0.05930301956676346,
          -0.09597179734741162,
          0.033800909071716026,
          -0.17774815271793065,
          -0.1848614967420332,
          -0.04209441078021764,
          -0.004473726624073957,
          0.02272003477011744,
          -0.3311472528279727,
          0.2517863471878752,
          -0.13787886702373994,
          -0.11346379391677859,
          -0.18251593762061144,
          -0.03998109739213988,
          -0.3083113528122638,
          -0.10881489566121215,
          -0.34980059752058357,
          0.041797283143534716,
          -0.04391905920794506,
          0.04266414020848073,
          0.24837172193605597,
          0.033247240298493054,
          -0.22011867447363595,
          0.03431245398540693
        ],
        [
          1.4012778032134017,
          -1.0060567646820913,
          -1.946921494719965,
          -0.7017301761399519,
          -0.9233804724791411,
          -1.357627821777742,
          0.5114066865417687,
          0.13134641689081047,
          1.4919178944625149,
          0.27986759945392337,
          -0.4653696705653282,
          -0.21641584516594223,
          0.39092394367647165,
          1.6083580576699263,
          0.4675441672583767,
          -0.44707774474983414,
          0.8181023366548468,
          -0.5028305347736471,
          -1.1558069557967923,
          0.31840919003701895,
          0.7409148210842313,
          0.6888781342903206,
          0.5349345027872039,
          -0.6536887535603468,
          0.12463857442124196,
          -0.8194835117510118,
          0.49419663939039515,
          0.4156868734627125,
          0.3871611450520042,
          -0.22031764533228945,
          -0.08725041779717112,
          -0.9347947426603853,
          -0.662690325017084,
          0.4447947813106304,
          0.3043416037763539,
          0.33909432881625473,
          0.28153604943938343,
          -0.28365886822759645,
          0.16160580293390786,
          -0.28198309527189075,
          0.42217665243702523
        ],
        [
          0.135296222062012,
          -0.18295376916724213,
          -0.18755866709005337,
          -0.22364561194379282,
          -0.25670598343615614,
          -0.13693954387338628,
          -0.15135847840396266,
          -0.110025585834295,
          0.009061332269391039,
          -0.0037742408243323002,
          -0.21509110723092623,
          -0.11765256719529814,
          -0.14144399090433368,
          -0.08481491590163542,
          -0.12621866688691044,
          -0.2500735862715446,
          -0.2018819827593647,
          5.555134692852036e-05,
          -0.29123442863657323,
          -0.11953641948921033,
          0.004286712514873296,
          0.001993176368847725,
          -0.1496298982547266,
          -0.06362809829570505,
          -0.09798470135692237,
          -0.024466997718329112,
          -0.09673933135362948,
          -0.2219766212604288,
          -0.13315766596074405,
          -0.1731405601968185,
          -0.11974231649864533,
          -0.16240820654691776,
          -0.12719968213055943,
          -0.19448161621882365,
          -0.1696668809758635,
          -0.16686041258161063,
          -0.1950200131732439,
          -0.1627345452059343,
          -0.05327165589801959,
          -0.24776864587388572,
          -0.15090978299037286
        ],
        [
          -1.3849068367593595,
          -1.133791491270886,
          -1.504765289177723,
          -0.9940690308696205,
          -1.1291606795260725,
          0.8060112829676765,
          -0.1717759825770454,
          0.18983386158170434,
          1.043475907901946,
          -0.4473505503907703,
          0.6359521222295482,
          -0.6813062630882782,
          0.15068367756310197,
          1.015534442584253,
          0.08113848962022317,
          0.060233679315453204,
          0.44329601780635725,
          -0.02846232726816824,
          -0.794703537142227,
          0.5845251494432758,
          0.8550049487657245,
          0.8811212525469134,
          0.7994347005157763,
          0.5610345489631654,
          -0.3809847385735727,
          0.11105903241190677,
          -0.689065249918778,
          -1.675943936056285,
          0.19759758356222368,
          -0.061255595364666904,
          -0.07532781373348482,
          -1.1847524311432271,
          0.343490243160734,
          -0.7880320125603761,
          -0.4060147796419842,
          -0.48415683108865165,
          0.8463723604243144,
          0.014331449136330015,
          -0.7261436870684228,
          -0.04308268193361674,
          -1.1172607848684764
        ],
        [
          0.1513347511308462,
          -0.2713569975167304,
          -0.1549230843742845,
          -0.3063057115148501,
          -0.22136400434744333,
          -0.14079566432100993,
          -0.039152089568178325,
          -0.08015631312654732,
          -0.12650837383768407,
          -0.07386950594032426,
          -0.19297266559365508,
          -0.1798505987381995,
          -0.06417641357707109,
          -0.1940886722903917,
          -0.031002748145522778,
          -0.25173804060675553,
          -0.06825362729554381,
          -0.0055985611753287985,
          -0.37536507626128607,
          -0.11888273883945352,
          -0.12815528282671987,
          -0.043017942759429106,
          -0.01613483902482865,
          -0.21685830080574614,
          -0.096270963898757,
          -0.010235730348823828,
          -0.2658614984155816,
          -0.0942063911171256,
          -0.24786047146390747,
          -0.128632453397856,
          -0.2398873501355401,
          -0.08519919251107583,
          -0.25112599194919555,
          -0.04124909118458266,
          -0.013448566204760178,
          -0.05829021368255223,
          -0.05986215279181384,
          -0.05751353827303359,
          -0.08733423990175235,
          -0.12003604950355262,
          -0.19096479727268786
        ],
        [
          0.4987739575172428,
          0.6022679090367824,
          0.8629125947131125,
          0.6279806938663259,
          0.2694486863327691,
          0.5706348415553382,
          -0.8110050402856508,
          -1.0926101533174828,
          -0.061205928420180564,
          -0.2548613368426735,
          -0.47673893365701503,
          -0.3214191308198932,
          -0.1423990127795854,
          -0.9277373439551784,
          -0.27162542873106155,
          0.2862864939748618,
          -0.7643281146478236,
          -0.07626487232214915,
          -0.831988352091325,
          -0.013289093432156259,
          -0.4685532821223435,
          -0.4924914575132865,
          -0.45907893148554796,
          -0.44413777784792,
          0.5519483485820159,
          -0.23636003277080642,
          0.6979431145110468,
          -0.21197284027388053,
          0.0258248848172931,
          -0.09916234447329306,
          -0.07135757695397114,
          -0.501337933848182,
          -0.08935266192258687,
          -0.4417721367911491,
          -0.3767624955220391,
          -0.5515909076008096,
          -0.027951078359415318,
          -0.1764014009461137,
          0.6543252391078768,
          -0.06089335827618076,
          -0.2598112505623527
        ],
        [
          0.18759726139518898,
          -0.9014565862047295,
          -2.145852554340737,
          0.45216308426501445,
          -0.6050664741593968,
          -0.8471196190114374,
          -0.814293211360916,
          -0.025281080260666233,
          -0.33794422062491103,
          0.04163941687272411,
          0.5377673809297858,
          -0.05139578375249797,
          0.010758222155518339,
          0.5495736947269371,
          -0.12189156325357779,
          0.9269101996257961,
          -0.22410721164043418,
          -1.1017657179380171,
          -1.0760562509016034,
          0.1838113491231767,
          0.2023499669837999,
          0.08878993141613858,
          0.09559353304640918,
          -0.9305547180265141,
          -0.12865001378506527,
          -1.054593167108245,
          0.7187487641672038,
          0.32642564803719687,
          0.12372031060918075,
          -0.19685498183427289,
          -0.15552790221724277,
          -0.82890544376855,
          -0.872888983716564,
          0.5842787972498852,
          -0.3193724848649766,
          -0.36036094632813664,
          0.6852797403856269,
          0.281205082015949,
          -0.030842764226902544,
          -0.07430996040354568,
          0.21186114935423786
        ],
        [
          2.158976528515493,
          0.9144457289774676,
          0.802039276924742,
          0.1793999466834052,
          -0.5589453262360952,
          -0.31481531789426936,
          0.19920821358842705,
          -1.400627306803963,
          1.5072375751513243,
          -0.6158236797777479,
          -1.0755224004322024,
          0.9903827347314662,
          0.5165642014934259,
          0.4053724604851307,
          0.46584035894437203,
          -0.7549141372341048,
          1.2094266270638212,
          0.8240715335441735,
          -1.6037335153419767,
          -0.38136830033268,
          0.9645147686345276,
          0.9536525991568796,
          0.7947424862570873,
          0.7910904291382834,
          -0.6142662996197762,
          -1.1612392981899442,
          -1.3545326097461539,
          -0.9856080628997061,
          0.8889508860966596,
          -0.12405777396848942,
          -0.1396739809009005,
          0.38083867740938115,
          0.979839960372354,
          0.5627634542718777,
          0.25999783957866984,
          0.26641182104306976,
          -1.1299496624541572,
          0.07313101034008662,
          -0.9275290870624827,
          -0.11744065338874163,
          -1.1157982773803692
        ],
        [
          0.13417502337695975,
          -0.24646050780570908,
          -0.19491445324342987,
          -0.29805122582220495,
          -0.10991562118437426,
          -0.24270943042335136,
          -0.12397552979282965,
          -0.15803189677404234,
          -0.1384390022037385,
          0.010469518874146133,
          -0.1848055193757357,
          -0.2481322722673291,
          -0.07434581033804379,
          -0.05100429187172422,
          0.003746747204546798,
          -0.1967814904495138,
          -0.14252718137639983,
          -0.041642074572596194,
          -0.3004305694417678,
          -0.20967589670969894,
          -0.1342530575950143,
          0.035363048087143516,
          -0.05760863416231065,
          -0.12195125776250837,
          -0.10882798243261949,
          0.04002361900054591,
          -0.18809133522699284,
          -0.2174893533383015,
          -0.058785843829018095,
          -0.23864530800176012,
          -0.021991880657371926,
          -0.07841315108419793,
          -0.08264090679810425,
          -0.04117609609209067,
          -0.12239892737403987,
          -0.11131152917974173,
          -0.08326072104625015,
          -0.009262703395515496,
          -0.21696272893966062,
          -0.13076615085158907,
          -0.19616665110134243
        ],
        [
          0.41457419218969827,
          0.21958292206856647,
          1.9115147196889049,
          0.8896957943131606,
          0.6003216009288693,
          -0.7241809064664115,
          -1.4305009673397076,
          -1.770393548623561,
          0.5365269587904601,
          -0.5594184646619595,
          0.2959141251229303,
          -0.8223508087905624,
          0.1548741947566271,
          2.334543015403738,
          0.07838408943907245,
          0.8846596319276853,
          0.35688368211942145,
          -0.7796662763428848,
          0.7749803928654657,
          -1.0633738567288598,
          -0.776631336311811,
          -0.5971999272905271,
          -0.648134272597608,
          -0.8924569096202096,
          0.4976502429294704,
          -0.7230829117147343,
          0.5369847692108124,
          1.4399250406992352,
          -1.294724564556524,
          -0.13695506362490523,
          -0.24253886149736303,
          -0.2708598655538873,
          0.2693992649279866,
          0.59997687750523,
          -0.9917505209533709,
          -0.9614482266250725,
          -1.1099051582470407,
          -0.7883389845726725,
          -0.6903943780117446,
          -0.14718475414084778,
          1.3391243811197808
        ],
        [
          0.048247797753429134,
          -0.20700115882281475,
          -0.09458781758621154,
          -0.2115951198567702,
          -0.25760103321368544,
          -0.2598583302741368,
          -0.0052030052028102,
          -0.20559006016358977,
          -0.22685498057207365,
          -0.2746422490731583,
          -0.35947067382952635,
          -0.13182864157040144,
          -0.21710573311507406,
          -0.27911855606577596,
          -0.2360887341126998,
          -0.20500790095632038,
          -0.14047829752760102,
          -0.13232510527433433,
          -0.3715240197215695,
          -0.23753686267582264,
          -0.07361044304999534,
          -0.07560851825445218,
          -0.08247493537874555,
          -0.2838814711043396,
          -0.2593957551260136,
          -0.1477864442203345,
          -0.2382852749629985,
          -0.18312827311150684,
          -0.21919233304455757,
          -0.12583694760536923,
          -0.16185928697125304,
          -0.1707911673862719,
          -0.20418325588378994,
          -0.1337284859496136,
          0.011028254455276715,
          -0.10182333650782827,
          -0.03068535880072994,
          -0.12518551071507536,
          -0.1820488604444368,
          -0.22801377120579652,
          -0.24366870596569123
        ],
        [
          -0.7917906402289708,
          -0.6305396697112009,
          -1.561195116719838,
          -0.9597674333993328,
          -0.4933678402034421,
          -0.652300032715723,
          -0.7613536477610092,
          -0.08851383046733931,
          -0.32765539857784953,
          0.37793107634847045,
          0.8839837062306888,
          0.10757978393372236,
          -0.05688505831961696,
          0.9034096955078899,
          -0.012369985957477788,
          -0.3367426300713023,
          -1.239621777758993,
          -0.46228670286685564,
          0.5983256239532173,
          0.01041036837742765,
          -0.03358831066892768,
          -0.1409121822689206,
          0.016095322253724325,
          -0.11644131301329477,
          0.3218744738128161,
          0.011822299609697247,
          -0.6599751101684244,
          -1.186987405924488,
          -0.10618298845331184,
          -0.1840402366144497,
          -0.07298549245523554,
          -0.2666765420131216,
          -0.4468162749369658,
          -0.2574319566144086,
          0.2943892603217518,
          0.2945701634207474,
          0.4714073844934183,
          0.06035070835265005,
          -0.07210782312788527,
          -0.01822429804886544,
          -0.8254057676598656
        ],
        [
          -0.3764862763094277,
          -0.2635653789868991,
          -0.4582800403470921,
          -0.38352804454478395,
          -0.18177131178432643,
          -0.3248792049173533,
          -0.17567391623379444,
          -0.07513147404246875,
          -0.30766741373258427,
          0.051726197899192125,
          -0.04824274314996427,
          -0.07640569360347718,
          -0.29351224887263544,
          -0.4826178031857992,
          -0.35094016730054806,
          -0.12087738161647499,
          -0.7325572993267448,
          -0.18542956977351543,
          0.6136307133170211,
          0.06753380240666268,
          -0.34635453263515525,
          -0.22465484427075033,
          -0.32947217075567936,
          -0.45057413050158146,
          0.19134315687965833,
          0.07742260781933902,
          0.12874401468774344,
          -0.3463697554110095,
          -0.09875771572472807,
          -0.13474685403994296,
          -0.06287495602733319,
          -0.39096373028250564,
          -0.4193804299007224,
          -0.2724178534445559,
          0.12602029022250424,
          0.15808822443145637,
          -0.11130430442809458,
          -0.09196039702577756,
          0.11289472470732473,
          -0.07305802609451838,
          -0.16765361018157118
        ],
        [
          -2.6160774133504177,
          -1.4834829425068867,
          -1.7814641307283328,
          1.108671920456606,
          -1.5413416450354338,
          -1.0915568709502643,
          -1.5425035863492058,
          -2.80021853534678,
          -1.4769076796890308,
          1.6908169409602363,
          1.9185472551591505,
          1.3842280700174674,
          -1.292006014774074,
          2.4576831136590207,
          -1.4243148648633635,
          -1.9417888075112513,
          -2.0088066739271397,
          -1.623533033108385,
          1.037107203376285,
          0.7024798123130479,
          -1.2487670996572198,
          -1.266027098071505,
          -1.3050567195913378,
          0.8135389019945172,
          1.1565737241426626,
          -1.9763511661091966,
          -2.161303630715947,
          -2.003507841622062,
          -1.2834709129299724,
          -0.3616384269638119,
          -0.1958686759637909,
          -1.3966813526399067,
          1.547931319065615,
          -1.4953689987181238,
          -1.4548608674346915,
          -1.3735925338416837,
          -1.222608086252403,
          -1.189970418299717,
          -1.863974062899698,
          -0.24506748557237115,
          -1.2300660890130064
        ],
        [
          0.02720184088032723,
          -0.1296361967300674,
          -0.21193310760343947,
          -0.22783678482742026,
          -0.15734920051407267,
          -0.07925304530494885,
          -0.17167179184217085,
          0.002438685340673065,
          -0.08511054041736237,
          -0.07381387434665677,
          -0.30057186217375914,
          -0.24950124040309196,
          -0.1488264143809948,
          -0.2839779889401473,
          -0.059868737111228185,
          -0.0841659819760735,
          -0.08763269466931259,
          -0.10002586231123978,
          -0.20820514917052435,
          -0.2051462974749219,
          -0.07058861177252974,
          -0.03565557509268916,
          0.02584419123117808,
          -0.21961589734224765,
          -0.2237896745545515,
          0.018730611489273172,
          -0.21136045091514158,
          -0.23990549431998315,
          -0.2179782301866999,
          -0.20162000673555416,
          -0.13125042358004602,
          -0.06590500329614132,
          -0.07850222157833146,
          0.019734592048099457,
          -0.1049204414621899,
          0.0020021085989546314,
          -0.13844330982397338,
          -0.14827125254965748,
          -0.19295606691109238,
          -0.15539984202822618,
          -0.2242000421420304
        ],
        [
          -0.3440486944326498,
          -0.43749921457063895,
          0.13697589370627455,
          -0.4647068097870994,
          0.17828943418316884,
          -0.4501332446879934,
          0.08332744559420324,
          -0.046992713586848256,
          0.2642592277898904,
          0.37850595369431733,
          0.36661097497563844,
          -0.47218561187628066,
          -0.32180941493703846,
          -0.27664800074219087,
          -0.337249879943119,
          0.01935124332512636,
          -0.37441934879685845,
          0.058693119258057445,
          0.8360854518196804,
          -0.1766756941778896,
          -0.1486876034117589,
          -0.09859292951320067,
          -0.04958734863720129,
          0.09725528297063682,
          -0.44789874369970384,
          0.28300139801557833,
          -0.2404540477504636,
          -0.23122264672549184,
          -0.30039203147865456,
          0.0003793342220708354,
          -0.010530564189037712,
          -0.16987424187905775,
          -0.6563054692717515,
          -0.2826414209869032,
          0.351689879974077,
          0.35458440992464724,
          -0.2496518388132829,
          -0.49597641725405966,
          0.022909273887828915,
          -0.21932224192367566,
          0.017066360098914653
        ],
        [
          0.11775817248418556,
          -0.14142864810313346,
          -0.1767857592313203,
          -0.3201231063060567,
          -0.1904825731986292,
          -0.14244093704167854,
          -0.07869241273013695,
          -0.022741638118384477,
          -0.1045833987870377,
          -0.005653696183723172,
          -0.19544670181880935,
          -0.24225863996378402,
          -0.06857435192550694,
          -0.2049353608902774,
          -0.01741937352290946,
          -0.27733281110363195,
          -0.20765591069212416,
          -0.20717265863370177,
          -0.3359688201950729,
          -0.10884999028548677,
          -0.08827329806504308,
          -0.025619873900932347,
          -0.018041136992950017,
          -0.20933614997524946,
          -0.3430602457645233,
          0.019561376838306343,
          -0.2684493220858269,
          -0.21327710131973804,
          -0.19842093136602115,
          -0.12047570759014091,
          -0.25803827457929684,
          -0.11658760767828379,
          -0.3321343462462519,
          0.02604275012299647,
          -0.04290528455778898,
          -0.09294432938312726,
          -0.19355875103963313,
          -0.09443516239747225,
          -0.08055726850076363,
          -0.206606468250284,
          -0.13694830694746124
        ],
        [
          -0.07069151518371658,
          -0.020396126841236085,
          -0.0767565548448493,
          -0.1786108981481936,
          -0.06312250985094274,
          -0.22418668094248945,
          0.0190044383083071,
          -0.04383899674337613,
          -0.019761268191917494,
          -0.07607084718155786,
          -0.10675133229867374,
          -0.12510508040921997,
          -0.16838612162299146,
          -0.10883271712223191,
          -0.13989193522873986,
          -0.06692127268291936,
          -0.1768220299063317,
          -0.15537813561366906,
          -0.39594856275288093,
          -0.16101373014424375,
          -0.02174847167329723,
          -0.03405256308840509,
          0.05098271392028788,
          -0.17780475042845165,
          -0.19107735496362868,
          0.044499581941012535,
          -0.15983821782342034,
          -0.10142307209671483,
          -0.18276732756271089,
          -0.13383403874296818,
          -0.1032879147373641,
          -0.18008646696797032,
          -0.27694695917251894,
          -0.19448157844671435,
          -0.06622882353408523,
          -0.1730123627708981,
          -0.05360341740779956,
          -0.21269894966309622,
          -0.19746154138675906,
          -0.15414242949292245,
          -0.25834845101381043
        ],
        [
          -0.8971484535277764,
          -0.08881182420249827,
          0.6819402345644759,
          -0.10882509746220108,
          -0.015756350956352565,
          -1.2496698949662948,
          -0.43332220423854395,
          -0.4653824643781499,
          0.5170735751424987,
          -0.1682807022337811,
          0.03219367941998912,
          -0.4377955101532831,
          -0.22268835411166124,
          0.29825741422451874,
          -0.07114723673271342,
          -0.32123912093965395,
          -0.33973672297309504,
          -0.2603928611536596,
          -0.01990671577359893,
          -0.9882217731014161,
          0.09460527332100634,
          0.12982254966858667,
          0.03330672277089168,
          -0.1455518124774666,
          -0.3308525122126368,
          0.1290597030399352,
          -0.3335232341521822,
          -0.16929837868695885,
          -0.637873088974817,
          -0.276363001003483,
          -0.2856503532303071,
          0.015297546834006876,
          -0.40070679200975085,
          -0.050546694053754296,
          0.11638236611040452,
          0.013822438539695888,
          -1.003410834616303,
          0.016234069705330662,
          -0.1146136093053933,
          -0.2681916308256263,
          0.09016139815148165
        ],
        [
          -0.5229667850887819,
          -0.5375071433466121,
          0.02350362706823229,
          0.0013041703851842353,
          0.4376561854622274,
          1.3610100398073093,
          -1.3472679849159357,
          -1.5739720552255667,
          0.5224798596038828,
          -0.7806075364708693,
          -0.19843345626224393,
          -0.5478359530788345,
          -0.758833465194595,
          -1.9028089549906344,
          -0.5449096642374627,
          1.0200483543946641,
          -1.0070419078018213,
          0.34210221180695327,
          0.7969028603420679,
          -0.9792342477716139,
          -0.9671487312628267,
          -0.7496268494945989,
          -0.7895442228048862,
          0.4753746769224036,
          0.06055590864117767,
          -0.9719331986513577,
          -0.39506475284891146,
          1.0639166878473372,
          -0.7588777022176263,
          -0.13971442944899365,
          -0.20317520897334942,
          1.1150466594826203,
          -0.659262323939459,
          -0.7153317251149633,
          -0.7532209025182837,
          -0.702649651416804,
          -0.617928963506966,
          0.6699402335054732,
          0.002361948577531914,
          -0.24620992446536252,
          -0.9730790863652421
        ],
        [
          0.23227399999249887,
          -0.0726011593202326,
          0.058842988811212645,
          -0.22098013207195527,
          0.013280949189388151,
          -0.5165543703519115,
          -0.007845657843608756,
          -0.04497382121336586,
          -0.017466166639467817,
          -0.13003822584730834,
          -0.1261020840936369,
          -0.15133749000385474,
          -0.09147290716377278,
          0.020315942798278853,
          -0.2394207185889507,
          -0.17919043190368864,
          -0.1815923153632162,
          -0.1738048157952628,
          -0.179090348392906,
          -0.4727720756698174,
          -0.10452651674728165,
          -0.20742151851445872,
          -0.15521542433331767,
          -0.36665582101374233,
          -0.174210439759716,
          -0.13105527798918237,
          -0.13612113400234382,
          0.04728522479319217,
          -0.2108775882498836,
          -0.11644405697258065,
          -0.2241776222688928,
          -0.09120770235284688,
          -0.26038613690588147,
          0.04426562726932287,
          -0.08484501061509839,
          0.010004043335549917,
          -0.11270751009605257,
          -0.10943659874120232,
          -0.12566245200720513,
          -0.034760796539136295,
          -0.029805018029383776
        ],
        [
          0.8115087594460557,
          0.14139099004922334,
          0.6028722071626532,
          0.33666118495418645,
          -0.18689308233372398,
          -0.1644290025972156,
          -0.5620171638433167,
          0.03290392012835281,
          -0.17446837273768714,
          -0.05153537973065441,
          0.540378392569463,
          -0.30872318928657033,
          -0.24036595905207409,
          0.16336916378796731,
          -0.12779933869034474,
          0.10063403866418343,
          -0.7130001601501958,
          -0.02161354822354965,
          -0.8255096177890222,
          -0.4771081483983183,
          -0.09729910282661523,
          -0.2749820693052425,
          -0.14114941092636052,
          -0.17593690827257286,
          0.16999645845777353,
          -0.4686666188567891,
          -0.41971481539372424,
          -0.6043462396573671,
          -0.1990073022881409,
          -0.27993863765737903,
          -0.2525207532119008,
          0.10343531848312118,
          -0.01816785866113332,
          0.16775705384520942,
          -0.48075263498334075,
          -0.6559033959156003,
          -0.5648301956518929,
          -0.5849461372541448,
          -0.13895783323961447,
          -0.0831991001819624,
          -0.2540843668936584
        ],
        [
          -0.04988009466921099,
          -0.10930852528182795,
          0.1673628040755098,
          -0.0976801743465279,
          -0.24328155149796746,
          -0.14060978751830913,
          -0.12503711733095674,
          0.11758456577781139,
          -0.2702974762923462,
          -0.4689273183210275,
          -0.5236066535045327,
          -0.13604030072352696,
          -0.14456536682389662,
          -0.2350855020881992,
          -0.13225774863026266,
          -0.005906719838557543,
          -0.09588060435330045,
          -0.03432165680264023,
          -0.36092665035553645,
          -0.02951267278763869,
          -0.24533732262053987,
          -0.06161544606629762,
          -0.27468890835670406,
          -0.3170632312802622,
          0.00449407097536214,
          -0.11137782821435654,
          0.03296581702201755,
          -0.1535310692002276,
          -0.09640026804697649,
          -0.166749831080104,
          -0.017462986085752932,
          -0.24998176551610177,
          -0.08165037752862037,
          -0.20293147390965713,
          -0.3234296864512372,
          -0.32811597700259265,
          -0.12116330745459741,
          0.0010771744307000203,
          0.08836656936048037,
          -0.07463040381597248,
          -0.042639893490847784
        ],
        [
          -0.09146465775491723,
          -0.05504284793031676,
          -0.09692364199651672,
          -0.263507616433456,
          -0.3082709171084207,
          -0.3400839091006186,
          -0.012532280585644894,
          -0.11794588469634001,
          -0.15869627048001084,
          -0.22863930992051723,
          -0.16863173275489732,
          -0.16373678606130082,
          -0.11234517095267918,
          -0.22151866648437948,
          -0.11793324566459291,
          -0.3129797215212205,
          -0.1986297161606449,
          -0.1632006820597216,
          -0.2629744405366531,
          -0.26946920577940614,
          -0.06125907877326936,
          -0.003842614788268025,
          0.036679214385170904,
          -0.18062800911700366,
          -0.17982996273035687,
          -0.11506967112606863,
          -0.2671256351177708,
          -0.20316024368795105,
          -0.07253421795246476,
          -0.08657381752345371,
          -0.21922654981764625,
          -0.1244720006297909,
          -0.15337123519654686,
          -0.18160060972836284,
          0.03876535182060004,
          0.00014043886683029594,
          -0.0598615444981439,
          -0.054104112329697515,
          -0.03910132315800648,
          -0.13216793149223857,
          -0.07391243531868394
        ],
        [
          2.3693643929657284,
          0.7243358526325345,
          0.08091913389001033,
          0.08372273243544556,
          -0.11152720789577142,
          1.0864781167816648,
          1.539227151083375,
          2.129614417948333,
          -0.4261636281500551,
          -0.9695516950789377,
          0.3807545602514305,
          0.34896855633876683,
          -0.8813341601551338,
          -1.6335764994421447,
          -0.8125352035362317,
          1.8866303622114302,
          1.8277802238614145,
          0.6176824387816358,
          -1.6532937624810262,
          -0.8041128313078233,
          0.5327397578022852,
          0.33346241353686285,
          0.3965144450621768,
          0.41958052378834476,
          -0.8355637180599074,
          0.24213514213576423,
          0.970032895393584,
          -0.6785858981595226,
          0.9390236806451525,
          -0.25909801018012935,
          -0.15303488527717787,
          -0.8119564481175553,
          0.2213970610406673,
          -0.910445142026512,
          -1.1577560966065161,
          -1.1037029819974589,
          0.3889330196666677,
          0.35252172442367813,
          0.44085279870182165,
          -0.09830467812677457,
          -1.4212762484157426
        ],
        [
          2.0147910434870315,
          0.40298396065114117,
          1.1696809919525553,
          0.20563588101634767,
          0.686943026487955,
          -0.6608650911014995,
          0.010931783331122377,
          -1.8504845269236794,
          -1.3948370870323243,
          0.23340058609205583,
          -0.8785723384689041,
          0.34347657977226453,
          -0.604879904543134,
          -1.045749772054543,
          -0.4812457489650175,
          0.3596975630996624,
          -0.2966465376117887,
          -0.5217696354513564,
          0.271961892002878,
          -0.1846454416241646,
          -0.8798590428502898,
          -0.6583165038539098,
          -0.6945918721654228,
          -0.7455892979965016,
          0.38953400717687253,
          -0.8853506122777153,
          1.1205619854378077,
          0.35395364609018903,
          0.10262911921763929,
          -0.030107298278283498,
          -0.17800290174603436,
          -0.4875543368118892,
          -0.7313790837338329,
          0.6738100055201176,
          0.4442824591163534,
          0.4552196082616855,
          -0.7415679645279912,
          -0.4965525369101953,
          0.8129668363382632,
          -0.10202152441595308,
          1.0342986418308155
        ],
        [
          2.4479486382737803,
          -0.6217944805666199,
          -0.9640260355940203,
          -0.8707572454414639,
          -0.8003979820807332,
          -1.411820780481325,
          1.038098286613224,
          0.4161134435184944,
          1.8431818763458558,
          -0.8951307446993106,
          -1.4831073702089552,
          0.2217704226221869,
          0.8247873776162595,
          -0.037394166344331126,
          0.7322304299657774,
          0.08763595526396101,
          1.4362660919054027,
          0.20855997113986052,
          -1.1663621348562352,
          0.4464186590635442,
          0.32980391124172503,
          0.4926823476947063,
          0.40309637257369213,
          -0.3882401476325171,
          0.16745871844584595,
          -1.0991788222078058,
          0.6682134758762768,
          0.8055152365279327,
          0.9514442273398154,
          -0.2491083608791569,
          -0.19664801944264976,
          -0.7537775890437233,
          -0.4518959737422054,
          -0.6174085040061578,
          0.2534066139044937,
          0.3973683873092273,
          0.5589457884793975,
          -0.45131563613152104,
          0.23371085384612225,
          -0.14269447027260804,
          1.0045838505016473
        ],
        [
          -0.7371331419252526,
          -0.14627774772456703,
          0.2608042646355432,
          -0.030317577334736442,
          -0.09776165830247618,
          -0.16729710224946864,
          0.09801322865808401,
          0.050884119216944766,
          -0.47899747603552995,
          -0.2568215701641332,
          -0.21324690971575302,
          -0.1666958028372844,
          -0.19862476533846096,
          -0.36325833762036175,
          -0.34879165333505946,
          -0.16201540605662437,
          -0.10230228373549244,
          0.03891273641907714,
          -0.13331824910327125,
          -0.10897651249708935,
          -0.07305580622653488,
          -0.1692360775207618,
          -0.1107176750570593,
          -0.27256996292553365,
          -0.059543598068564546,
          -0.08963191455118333,
          -0.1762953320921839,
          -0.13490531679636786,
          -0.24369450592624073,
          -0.190640787012301,
          -0.1732069899783509,
          -0.18756679120637595,
          -0.07828875646750375,
          -0.4260869954828404,
          -0.0916512335579169,
          0.010285262205048941,
          0.003493132040509656,
          0.0055506321291033086,
          -0.15705478163029715,
          -0.21243821049056122,
          -0.16425509441793318
        ],
        [
          0.12081617184622219,
          -0.15935659644047906,
          -0.012889520830244265,
          -0.2719472550761162,
          -0.25479966113745217,
          -0.10334189295105349,
          -0.020863530881215286,
          -0.2705314875448352,
          -0.14462113477423777,
          0.010264706136027986,
          -0.30884602314373655,
          -0.26245649549646227,
          -0.04399320599494666,
          -0.08028243331581127,
          -0.15664135083915653,
          -0.11549372248928477,
          -0.018028839143282682,
          -0.15767367100095545,
          -0.28785824847430147,
          -0.029002840964106175,
          -0.15486289983279558,
          -0.11449689180772189,
          -0.016254699854571304,
          -0.19186965826054295,
          -0.3090901574402126,
          -0.027048368658559505,
          -0.1797734653729763,
          -0.16306841079661122,
          0.006865983838275365,
          -0.19700931145365644,
          -0.06490423639215291,
          0.020521361324119705,
          -0.046795665107900244,
          -0.14555322983081823,
          -0.1041119893809673,
          -0.15514708554848236,
          0.03581275688689348,
          -0.0008047997472698416,
          -0.09023970603575869,
          -0.2168447873604026,
          -0.1878749251800711
        ],
        [
          -2.604884277553644,
          -1.9142631596960122,
          -2.415240193239643,
          -2.0787104162876706,
          1.1532074155145797,
          1.536331421316311,
          -2.128496635202846,
          2.8479160061314617,
          2.2968736870610234,
          -1.3179928770785343,
          0.2139916337729423,
          1.2375284122264283,
          1.5871075920687538,
          1.8292434538613793,
          1.6399680423372012,
          2.8520741764971693,
          0.7046212060687108,
          1.5750705323223024,
          0.5872192582303664,
          0.8485312588469175,
          -1.8829331914540457,
          -1.895485198835796,
          -1.9918736131471133,
          0.43058330784651655,
          -1.6234335897167016,
          1.8521473910914312,
          -1.4374576562102968,
          2.9887993254565566,
          -1.6688178892055354,
          -0.5326948362073142,
          -0.38691107248179013,
          1.7332574207240312,
          1.0038203751193635,
          -2.1065289303616868,
          -1.8029800234527007,
          -1.7419129178899457,
          -1.7246527674955903,
          -1.366431319938186,
          -2.256751846299379,
          -0.49527605217016374,
          -1.2980405765799305
        ],
        [
          0.0656131975495894,
          -0.18931738126963413,
          -0.18220792088901855,
          -0.20607246901823956,
          -0.1472519822440201,
          -0.2906440382168626,
          -0.001498201401273078,
          -0.10567999694210853,
          -0.07056856593447391,
          0.011085072163285846,
          -0.19296972096234002,
          -0.2170833869284583,
          -0.06970988015077188,
          -0.16472285679892773,
          -0.11246462477412635,
          -0.13127708635868637,
          0.008086428418992798,
          -0.12123984695629758,
          -0.35917949281063516,
          -0.1507210869873119,
          -0.09210224585072367,
          -0.16117469007967047,
          0.024448695251856344,
          -0.21575336736367154,
          -0.13959506701693267,
          -0.0602341733621156,
          -0.24214859815703557,
          -0.18742249566991587,
          -0.2551525846447973,
          -0.1332254233950905,
          -0.06510778575431743,
          -0.20353119795058447,
          -0.2751326891257155,
          -0.06842257951687077,
          -0.017903190483139483,
          -0.00878086013810727,
          -0.13939019145053083,
          -0.2361109927267672,
          -0.1853155209898372,
          -0.21173101220030388,
          -0.28897163672704673
        ],
        [
          0.7405405870094605,
          0.04464347848473572,
          -0.7420301141721951,
          -0.05230249426562585,
          0.15454063541316823,
          0.38050418803378067,
          -0.09289503716928182,
          -0.41599112707233243,
          -0.20120715400768777,
          -0.3942044526156664,
          -0.7739241904928216,
          0.08551887823637443,
          0.19120672835537786,
          0.3967045125857275,
          0.06367825043871678,
          -0.5112335941456951,
          -0.6633852927667632,
          -0.5429709125560594,
          0.03140231657829614,
          -0.4390972549774504,
          -0.5298384883460956,
          -0.5487023700266386,
          -0.6024464029087232,
          -0.24491347963834464,
          -0.4737487190394245,
          0.23966450136114845,
          0.5729391756517148,
          0.9857638748983836,
          -0.20420162791267601,
          -0.2186540902365325,
          -0.11264622250335758,
          0.14147952269874192,
          -0.2215870437566268,
          -0.05952220496485046,
          -0.20520661510678068,
          -0.1598522093826628,
          0.6326070941889531,
          0.31996290889028195,
          0.10069640883633853,
          -0.16998049003964655,
          -0.42073403878339743
        ],
        [
          -0.05821699316510668,
          -0.33883747283952464,
          -0.5824277862173044,
          -0.10773918224790888,
          -0.26295371990221555,
          -0.633515045721263,
          -0.23624650475205397,
          0.23231161517483104,
          -0.38333181485968465,
          -0.06744930510576153,
          -0.4382344131839949,
          -0.2147592932728812,
          -0.19834300942152192,
          -0.3634170543065479,
          -0.06021433322844068,
          0.02693428819906602,
          -0.33426482270334595,
          -0.5587728060980868,
          0.27861404076528695,
          0.011317060422995403,
          -0.22578953060284632,
          -0.23801810572082005,
          -0.3443782752841748,
          -0.6247517422312833,
          -0.10287812241990558,
          0.143781314227349,
          0.24045278754114338,
          0.44690529934573725,
          -0.22572005555020494,
          -0.2128834712594065,
          -0.24529694227720242,
          -0.2929508589506954,
          -0.4722973063894891,
          -0.005973457166015909,
          0.007978391050160983,
          0.005938810007838519,
          0.18386248974733652,
          0.10740877257683024,
          -0.10509507425095428,
          -0.14759570080070153,
          0.14382583310043187
        ],
        [
          -0.9144125596382432,
          -0.047033939355743584,
          -0.1766703139012863,
          -0.39465098688169575,
          -0.2892420133345469,
          -0.3529521363471064,
          0.20090203241009388,
          -1.345446476254718,
          -0.5421338898751318,
          0.27744495340375774,
          -0.180927456928587,
          0.07745299421356668,
          0.09191236049499164,
          0.20014665581607893,
          0.15234176316204392,
          0.040760378972253486,
          -0.3157901790996035,
          -0.05067044952616944,
          0.6418974352319828,
          0.22694274345421978,
          -0.25592861713466813,
          -0.24367801732212518,
          -0.3728332672005097,
          0.030123059524639822,
          -0.5129767436274838,
          0.05801881915408144,
          -0.6205235479185405,
          -0.013905610062347157,
          0.003472559146331009,
          -0.16047527575006384,
          -0.03970140551943884,
          0.1220032159560373,
          0.1331779931917203,
          -0.2606930804109401,
          0.3290747836000751,
          0.3389286897826947,
          0.08554085906838761,
          -0.32622794522570436,
          -0.3115249155877083,
          -0.11674074362017754,
          0.018849756615364668
        ],
        [
          -2.697594310733102,
          1.3356402709794641,
          -0.9410022129427944,
          1.8814415790075125,
          1.009580142906311,
          1.7988129976478315,
          -1.3081425466341787,
          -1.779808478077346,
          -2.103247977784824,
          1.1723570217272652,
          2.19159065751678,
          0.5076657907844994,
          -1.36522807748694,
          2.4924723431448843,
          -1.400041858665923,
          -0.03316890522282545,
          -1.9333185824641503,
          -1.461815073487491,
          0.5406372891094664,
          -1.3101239153317237,
          -1.3875565687772053,
          -1.254191196099695,
          -1.3629792049434661,
          0.7835929442135073,
          -0.6432153851941028,
          -0.07520805949393974,
          0.5026078410157283,
          -2.4538274740351,
          1.274915626108099,
          -0.25340645632575226,
          -0.282581823155617,
          -1.6525370064645173,
          0.8315577772068391,
          -1.6666579741578134,
          0.8420985037631098,
          0.6965962290778078,
          -1.5867218451182927,
          0.06801511646602679,
          1.580220286729805,
          -0.29863594122746934,
          -1.8615586723066415
        ],
        [
          -0.6377342157916558,
          -0.3608605956442004,
          -0.08395258175754454,
          -0.20825410051223384,
          0.15582714918418586,
          -0.16702987125063012,
          -0.5222152375254483,
          -0.08698927262671369,
          0.24155252487970538,
          -0.3588528532100118,
          -0.28965581739734864,
          -0.29976227590349147,
          -0.05985752120061385,
          -0.1007872566509124,
          -0.025446947848136926,
          -0.2839595197064659,
          -0.45568237547564044,
          -0.2548849189513444,
          0.34454402059202965,
          -0.3136566242435426,
          -0.37394148016244133,
          -0.35129202150784056,
          -0.19787153124517637,
          -0.2777061530747857,
          -0.21224594086430704,
          0.09936342292225292,
          0.38564089506655264,
          0.5460083837847548,
          -0.5067420157845844,
          -0.17992243345193426,
          -0.043304379377886476,
          0.10141655991552984,
          -0.40689676020695376,
          -0.026754761077676294,
          -0.02899613029954974,
          -0.057554606336406126,
          0.06908875678937246,
          0.21822132406931904,
          0.018682321525295437,
          -0.08396886262581083,
          0.4266241760567561
        ],
        [
          1.7900575688850426,
          0.7685027935799055,
          -1.2870301761594212,
          0.6707786989026275,
          -0.06347261742019938,
          0.6190298325043498,
          -0.12285289251881878,
          -0.24529935457917115,
          -0.2312108666082479,
          -0.3266262022404781,
          -1.1676981832447904,
          0.749308744246158,
          0.5461005644953603,
          0.3389385679003655,
          0.5218770518759669,
          -0.18221424390014923,
          -0.679417493365092,
          -0.28336957056200557,
          -1.1737305055058116,
          -0.1362097769267859,
          -0.3545276494038558,
          -0.3027547931956473,
          -0.3790428817869741,
          0.41152363725928987,
          -0.44984123223906813,
          -0.8466104714900853,
          -0.5522151946880339,
          0.6462623017755919,
          0.5089485821981232,
          -0.08554243886872673,
          -0.09722714150973408,
          0.7661320241961292,
          0.4719687072638761,
          0.17626711753709476,
          -0.4913397861972091,
